{"weights":[[4.797972094814753,-1.4348037360127595,-1.4293184263030265,4.795723807712637,-1.137041138225513,-0.9166282133230957,-0.3241140229364086,0.03862275636185816,0.04670583109053339,-1.2441362824988702,-0.8794743862251834,-0.9363219279776555,-0.8947282695872474,-0.41409663899532095,-1.4171792103631728,0.03108685338433538,1.6478468463272338,4.930104432722256,-1.4404671449857718,-1.1095893970391082,0.6875230443849665,-1.1734929395813034,0.03567425010418007,-0.9239449485182664,-0.8516922398320056,4.781338205705944,-2.142170230074341,2.7865755320355063,-1.911817370626124,0.028394695665470322,4.776401196213636,4.797002840865529,4.877686126724743,-1.438740579689886,2.0303543083640685,-1.2209493521805614,-0.7114151937587863,2.603877592931608,2.5838231659485595,2.571856645606777,2.623237246731266,-2.0604362172452793,-0.5939696987445862,-1.4321757890840778,-0.9577939289813466,-0.946365259279764,-0.6407201276915656,-0.6919782160479727,-0.6450008329911204,-0.6804637661657643,-1.8327278416366994,-0.6764414219465886,-1.3405857095097413,-1.4351889632931663,-1.8244045014890857,-1.4426539828300349,-0.9391754804767308,-1.5295096199599525,-0.6099538668053879,5.172954868751377,2.838603612356376,-0.20376016277153775,-1.0474529931983512,-1.163621346948245,-0.7377963771285699,-1.4208114063225528,-0.41386377861660456,-0.29231922251976206,4.793672350744132,-0.790746727849281,-0.34342402251937276,-1.1239495814315372,-1.432503823442129,-0.9220031995754492,-0.870562801876901,-1.4265169977233048,-0.6650117831763356,-0.8650523422839326,-1.4276450528190832,-0.7253101134721376,-1.4174661718781156,-0.6130932124809432,-0.5839122472476278,-1.43457545914394,-1.4174321821406233,1.9628525867249011,4.802189947301696,-0.8961263451047425,-0.8823675923568983,-1.43193561195453,-1.4193523017380225,-0.2478699427040856,-0.5144348726432355,-1.069937677344316,-0.49631208298565077,-0.49180729177196514,-1.4270617852624023,4.802673711200482,4.795553507867436,-1.4426514362360017,-1.4237899945759123,1.2140566394972614,-0.799110989584276,-0.35929250528953055,-0.3669908700511965,-0.3966029864778275,-0.36075501243321056,-1.4220600395350085,-1.4343840693098286,-0.6990258553554758,-0.5024874681376388,-0.5226297169589889,-0.5577001401874474,-0.6118127536437814,-1.4300360531966034,-0.5815832516578774,-0.8847853589593834,-0.8993159780799097,-1.4272078417233578,-1.4304779589606842,-1.4281842068317745,-0.6899938396195582,-1.415397683802502,-0.9557568683225494,-0.8968134670146812,-1.4307774545680243,4.801784538311798,-1.4213389164508636,-0.4954592709209876,-0.49914095779593937,-0.4875709968487619,-0.4940547212452427,-0.700604673369049,-0.660237495973973,-0.7094898021781277],[-2.415509784373596,3.6632357916515854,-2.411044673344037,-2.416796526122997,-1.273328260766532,-1.2961907277904567,-0.6369252708186778,0.04828815681678538,0.8565595712578296,3.576573868587877,-1.1749618398230108,-0.7472987356596714,-2.3337594628001805,-0.3989486427976847,3.648782809885736,0.05315547819782286,-0.17268589663106193,-2.422493196211348,3.6662401417347072,-0.4038412617081953,-2.828862706075707,-0.3996889341162508,0.0508971011262952,-1.399096433581886,-1.4161828539138972,-2.3971151792962333,-0.9485483706308205,-2.1392853600378574,-0.5235375454918613,0.05641375313348791,-2.395169760326069,-2.4124655084021196,-2.566094232505124,-2.399576679387639,0.6971769697365681,-1.847937418441288,-1.0855840853199108,-1.416921000450383,-1.383185022105592,-1.3973746388349078,-1.4103748221782901,-2.4540023734329246,-0.1567938725449818,3.6618241871961863,-0.6688929919075076,-0.724342592109042,-0.2188530510558289,-0.9943796699628391,-1.016895032783116,-1.0028920554245058,3.7841083318376376,-1.0197904191396305,-1.9983230683661217,-2.407864569031113,3.774450100714057,3.6836145163947815,-0.7570332119263652,-1.5060269786600742,-1.3077772109773271,-3.3327782496885896,-1.232640658288043,-0.46290024028125826,-1.6561555640821428,1.034008988036604,2.8030758121134567,3.650143244408684,-0.3445785029373903,-0.18209313767356453,-2.4087662172956437,-1.2103698068871445,-0.44144023648326997,-1.5973444468549054,3.6606377508501664,-1.425490038924918,-1.377148008086593,3.6557731149028014,-1.004061481369407,-0.22675625292172738,-2.4028859775618563,-1.2411745338064746,3.64754551292248,-0.9137261042362204,-0.9468527505576352,3.6698710113227704,3.6469726154476168,-0.13063999591383132,-2.4209971499084557,-1.3914545074124216,-1.41683197969279,3.6692583005926505,3.654353881130291,-0.21140606869632017,-0.3329118823798775,-1.519126822983448,-0.954001849947816,-0.9421220495341973,-2.4186571208535583,-2.4238248493553276,-2.4130230068979257,-2.396828605734362,3.653314799315487,-0.8199805190898526,-1.2852509089293636,-0.5379565423032989,-0.5492632827009553,-0.490410717518293,-0.5555499387775754,3.644645150971085,3.6630504507505353,-1.4796061155870672,-0.7104213039017363,-0.7188507944100692,-1.8092987884085394,-1.8399989991450911,3.6628116391489733,-0.16078033247557227,-1.396393010151179,-1.4105063372080286,-2.4120456052303765,3.658326889465289,3.66338367717615,-1.470670041318319,3.644164863172581,-1.4365484179351324,-1.467907277702929,3.671300473626157,-2.4193077920503656,-2.4281673063351517,-0.9067506524441188,-0.9683456091418845,-0.9247690779135661,-0.9568423175469892,-1.4679486392488332,-1.5094779662737197,-1.4790197738568236],[-0.9546761988194005,-0.958190292668178,5.410779806620362,-0.9600676965439913,-2.4174857648725174,-0.5357004804607545,-0.155432372462245,0.023253210255572643,-1.3549865348521732,-1.1109444978325649,-2.3085353120705245,0.13659967808823759,1.649810541166784,3.7873877692258127,-0.9635808728626635,0.02483587897058989,-1.0161521289282152,-1.5720696842189799,-0.9610596872997351,-0.7171482838518793,0.04720059393120863,-0.666093226839049,0.024313400277325654,-0.655847897879794,-0.6397423690795003,-0.9668966767008375,0.48917881853064316,-1.0661154066510552,-0.708942516127766,0.024747315143157027,-0.965611817760754,-0.9774176786583127,-1.1872022896844232,5.41089989289417,-1.2893934080358298,-0.9347816199237915,-0.5082029125831284,-0.6536913832964302,-0.6457258208249724,-0.645281317345776,-0.6510793589226417,5.568228353920706,1.0260622951060718,-0.9636684905350801,-0.6284938767186014,-0.6707567067799033,-0.40373604441147176,-0.5374988098021402,-0.47715394954024176,-0.47633554284740814,-1.0300211385874425,-0.48858487446245835,-0.9984962948235842,-0.9681035084138324,-1.0246798864810363,-0.9747113580749516,3.9590540404016448,-1.011024577974971,-0.48872267902772293,-1.0324844682738532,-0.2724741465838205,-0.16699374114812907,-0.8094377707860243,-0.9175648560542684,-0.5107403586276351,-0.9726825475482775,-0.6343336431083969,-0.3696240337386101,-0.958174174705283,-0.5480338260651539,0.7101796337129598,3.2777388544725126,-0.9667839806011304,-0.6302466951076744,-0.668108336208197,-0.9621682744427306,-0.5051984951386079,-0.5713614221028025,5.411071963936036,2.5280170300238622,-0.9676044717048998,-0.22005335962241318,-0.21932411736999458,-0.9642590555626873,-0.9555385656122468,-0.5962397694633643,-0.9692351660217221,-0.663535964541088,-0.6317498571104833,-0.9612352603134693,-0.9581220300959503,-0.702387335966232,-0.9689277760807118,-1.1529783253813413,-0.2997439467162063,-0.31414386955255097,5.412649239702214,-0.9546511020808239,-0.9621563831708196,5.411548328497373,-0.9664322861478308,-0.42614500806781574,-0.46681176065024715,-0.33462676408109193,-0.3448116517000212,-0.2985153504558467,-0.27649424937075184,-0.9688757153979997,-0.958122466900577,-0.3973321905383946,-0.42209448331341387,-0.34442521782433105,-0.423749849447676,-0.4100830498140142,-0.9666810093388527,1.0332791761715567,-0.6809263537910345,-0.6103712895841887,5.4122043639365796,-0.9595173151526925,-0.9537297995666408,-0.3855750407219353,-0.9683372054107655,3.033394759107131,2.961495586451425,-0.9709308079435273,-0.9539291992479064,5.412427794256481,-0.2837299014953699,-0.30134831547349117,-0.27371283202999297,-0.34063070261184153,-0.39211820457407,-0.36444432898793455,-0.3981704747890214],[-1.1755515948704403,-1.1834493873609375,-1.188358435135529,-1.183517551737108,0.49422484297609465,2.1472164535268017,2.8337250617512284,-0.46247308450673136,-1.9865879791332888,-1.9568253568161271,-0.7075981648650327,-0.5257754132472311,-2.17369813154468,-0.16031574220781994,-1.1865186082730148,-0.4620469374667457,-0.12549361678704044,-1.2063875733105198,-1.1745028300159759,2.097025504398623,1.4696895748096928,2.1046455111095472,-0.4626484714503957,2.78233351945244,2.7550726022564533,-1.1831429637229636,1.8261102908258284,0.6082015428031537,2.9999483481872016,-0.4628494422228016,-1.1739877900682651,-1.1833811415217461,-1.3692191310254147,-1.1828773941114377,-1.5286945633385567,3.4341252707244148,2.220731225941182,-0.7711765369047745,-0.7611841723706763,-0.7217370245782839,-0.8071164103500388,-2.203432594899729,-0.8101850965916857,-1.185527931763419,0.9685401158897479,0.8939732747068093,2.2498268784383706,1.9158006675042583,1.9638375614735124,1.884225995467708,-1.221217449937411,3.8186527694139087,1.4672982315813274,5.142293005963973,-1.2211596626004,-1.1885769555765315,-0.3114245240977133,3.4049089506575303,2.2435432199442067,-1.2223223459093158,-1.3822707738297135,-1.3297094339775164,-1.73581333997569,-0.8222707952700143,-0.7284321443204889,-1.1845892949021735,-0.43068977726061086,-0.20632089419496918,-1.1805847722689802,-0.4350806743662558,-0.22849012536794353,-0.8818339925270122,-1.180763565728095,2.7672554730449628,2.7716282352095365,-1.1867106359911892,-2.327077145573987,1.1951971084907322,-1.1832940718116813,-0.6890437522666911,-1.1885926249819103,-0.4795794418354732,-0.5751731431148944,-1.189120184729232,-1.1827577324000003,-1.3573964112667234,-1.1782030436579183,2.788316473707747,2.7493190664980682,-1.1878492570226196,-1.1871794856814601,-0.7256406267334098,-0.9079496071645811,2.3576975432638867,2.140430431119527,2.1683859455851837,-1.1832904921397691,-1.1869808867135683,-1.1716024764887363,-1.1832615334575276,-1.1801939511645607,-0.546637404883583,3.087731178382752,1.0102841602572143,1.0023920131220803,0.9646731240682413,1.03568826462357,-1.1853390125537135,-1.1826572101454909,3.8094204390599615,1.3074042901106686,1.3137184433287432,-1.8665266506891327,-1.8511845368383768,-1.186060489374703,-0.8246034341071673,2.759833501050189,2.7798470418910832,-1.1789606924221683,-1.1748632217314288,-1.17082184535644,3.802868639415417,-1.1810188557653856,-1.5346329019550093,-1.4904226160232834,-1.1848613326950839,-1.1778385986342097,-1.179953231423398,2.1862474664343754,2.1226871880766827,2.139400675144419,2.1727347995728654,3.805340056405373,3.8086174483643056,3.8132778466279844],[-0.26594170015331664,-0.24972148211801712,-0.2480122367821042,-0.22396255715726718,3.303352204111136,-0.8609605727035246,-1.4856542757599458,-0.07988513209627286,-0.6690612615472308,-0.36536327974022603,3.760921238892819,1.5714704181958283,2.4480983054837044,-2.6972700219793833,-0.2522586477974154,-0.08001862599482,-0.8604616697085007,-1.0085161824350182,-0.26848262748530566,-0.1437202722213703,-0.9940647091436029,-0.11827977777675894,-0.07934552824092957,-0.19463398791887623,-0.24843635600800215,-0.26094719323765997,-0.2513794317189131,-0.25928675013860897,-0.16534108500759226,-0.07939190172556554,-0.24722719375646415,-0.22897961488991317,-0.3527706753060678,-0.26205638022477107,-0.37861362162869555,-0.3678561267546773,-0.15758713918571568,-0.22842840224579314,-0.19262827326048165,-0.22095031134171944,-0.22288000980748218,-0.3918106939819107,-0.11983817518495656,-0.2778705387231771,0.934351439815418,0.9774597274771528,-0.5619717676587848,-0.16435490534357244,-0.1715948446077786,-0.16240473220587653,-0.30314603013541536,-1.6671378375841532,2.783202243884628,-0.23651354876827957,-0.2917237010146368,-0.2491023692830207,-1.570419970083502,-0.28472398925792824,-0.16399143912599864,-0.313545486540481,-0.042473669856714115,1.5322282407848788,4.479880489672851,1.4782033267930643,-0.7865422760837143,-0.253144761142539,1.4185749230450995,0.9717513579377544,-0.22137604767545532,3.0158323440242816,-0.47968123500057863,-0.6070362588112614,-0.24018405616732344,-0.21056918320524426,-0.200651211436576,-0.2322483242016219,4.430330581396186,-0.05754417843535944,-0.22036327453316937,-0.17372052327129522,-0.21603528991085777,2.001720129985297,1.9997468826779141,-0.22746922015065985,-0.2653746031808644,-0.29183069653593974,-0.26059333023636133,-0.19106818219587152,-0.19437708244885235,-0.21049772292737073,-0.23269665555500066,1.7948933433141727,2.2559775131157154,1.1966353920083717,-0.08745576627301213,-0.038021791835107954,-0.23280213191333415,-0.22862019774532252,-0.251516574159501,-0.21710999362185157,-0.25313928918434586,-0.21483026005659345,-0.6145429738523787,-0.11429546421348041,-0.1418308355718011,-0.11514045608967144,-0.12804815310904616,-0.21302350857020796,-0.21160212660245004,-0.0535470196834443,-0.14093310809299955,-0.11432849045015453,3.0624968200545086,3.047616200467393,-0.25209397521860244,-0.06237102059787516,-0.18990321425910153,-0.21730484012883608,-0.2006175313604431,-0.23961025974345754,-0.2369356051828302,-0.09568913614978826,-0.2616393348549142,-0.317109832045767,-0.27349344006054793,-0.23844592981187254,-0.25621821146110263,-0.2500872193251474,-0.01673223922467169,-0.0872176330365319,-0.08865672112080683,-0.026076205760104804,-0.04650986878096485,-0.06801718083186793,-0.09701346236349051]],"biases":[-1.9917799645651604,-0.8001303848841239,-2.6823613703951814,-2.0482523418857177,-4.281256666436848],"vocab":[["farewell",0],["hola",1],["thnks",2],["cya",3],["what",4],["is",5],["gravity",6],["bot",7],["good",8],["evening",9],["who",10],["are",11],["you",12],["awesome",13],["bonjour",14],["friend",15],["catch",16],["later",17],["hello",18],["create",19],["a",20],["song",21],["buddy",22],["solve",23],["equation",24],["byee",25],["i",26],["have",27],["pain",28],["there",29],["sayonara",30],["gooodbye",31],["bye",32],["thx",33],["ciao",34],["explain",35],["photosynthesis",36],["au",37],["revoir",38],["see",39],["ya",40],["thanks",41],["ton",42],["yo",43],["tell",44],["me",45],["story",46],["symptoms",47],["of",48],["flu",49],["morning",50],["debug",51],["this",52],["calculate",53],["afternoon",54],["hi",55],["thank",56],["write",57],["code",58],["night",59],["great",60],["about",61],["yourself",62],["whats",63],["up",64],["hii",65],["do",66],["know",67],["adios",68],["introduce",69],["so",70],["much",71],["helo",72],["search",73],["for",74],["sup",75],["whos",76],["poem",77],["ty",78],["appreciated",79],["hiii",80],["r",81],["u",82],["konnichiwa",83],["namaste",84],["day",85],["goodbye",86],["generate",87],["image",88],["wassup",89],["hiya",90],["how",91],["can",92],["help",93],["lorem",94],["ipsum",95],["thanx",96],["byeee",97],["ttyl",98],["thankss",99],["heyy",100],["gud",101],["medical",102],["why",103],["the",104],["sky",105],["blue",106],["helllo",107],["aloha",108],["asdfgh",109],["quantum",110],["physics",111],["your",112],["name",113],["greetings",114],["lot",115],["find",116],["information",117],["cheers",118],["heyyy",119],["hey",120],["test",121],["howdy",122],["appreciate",123],["it",124],["salutations",125],["peace",126],["thnx",127],["random",128],["text",129],["xyz",130],["abc",131],["blah",132],["qwerty",133],["123456",134]],"labels":["farewell","greeting","gratitude","unknown","identity"]}